Language model created by QuickLM on Fri Aug  5 14:15:12 EDT 2022
Copyright (c) 1996-2010 Carnegie Mellon University and Alexander I. Rudnicky

The model is in standard ARPA format, designed by Doug Paul while he was at MITRE.

The code that was used to produce this language model is available in Open Source.
Please visit http://www.speech.cs.cmu.edu/tools/ for more information

The (fixed) discount mass is 0.5. The backoffs are computed using the ratio method.
This model based on a corpus of 35 sentences and 35 words

\data\
ngram 1=35
ngram 2=68
ngram 3=81

\1-grams:
-0.9797 </s> -0.3010
-0.9797 <s> -0.2530
-2.2227 BACKWARD -0.2530
-2.5237 BOUNCE -0.2530
-2.5237 CIRCLE -0.2530
-0.9797 COMMAND -0.2321
-2.5237 DOWN -0.2530
-2.2227 EIGHTY -0.2851
-2.5237 END -0.2530
-2.5237 FIND -0.2984
-1.9217 FLIP -0.2797
-2.5237 FOLLOW -0.2530
-2.2227 FORWARD -0.2530
-2.5237 FREEFALL -0.2530
-2.5237 LANDING -0.2530
-1.7456 LEFT -0.2530
-2.2227 NINETY -0.2851
-2.5237 OFF -0.2530
-2.2227 ONE -0.2984
-2.5237 PHOTO -0.2530
-1.7456 RIGHT -0.2530
-2.2227 SIXTY -0.2851
-2.5237 SPIRAL -0.2530
-2.2227 SQUARE -0.2530
-2.5237 START -0.2530
-2.5237 STOP -0.2530
-2.5237 TAKE -0.2997
-2.2227 TARGET -0.2530
-2.2227 THREE -0.2984
-2.5237 TRIANGLE -0.2530
-1.6207 TURN -0.2770
-2.5237 UP -0.2530
-2.5237 VERTICAL -0.2984
-2.2227 VIDEO -0.2984
-2.5237 WAVE -0.2530

\2-grams:
-0.3010 <s> COMMAND 0.0000
-0.3010 BACKWARD </s> -0.3010
-0.3010 BOUNCE </s> -0.3010
-0.3010 CIRCLE </s> -0.3010
-1.8451 COMMAND BACKWARD 0.0000
-1.8451 COMMAND BOUNCE 0.0000
-1.8451 COMMAND CIRCLE 0.0000
-1.8451 COMMAND DOWN 0.0000
-1.8451 COMMAND FIND 0.0000
-1.2430 COMMAND FLIP 0.0000
-1.8451 COMMAND FOLLOW 0.0000
-1.8451 COMMAND FORWARD 0.0000
-1.8451 COMMAND FREEFALL 0.0000
-1.8451 COMMAND LANDING 0.0000
-1.8451 COMMAND LEFT 0.0000
-1.8451 COMMAND PHOTO 0.0000
-1.8451 COMMAND RIGHT 0.0000
-1.8451 COMMAND SPIRAL 0.0000
-1.8451 COMMAND SQUARE 0.0000
-1.8451 COMMAND STOP 0.0000
-1.8451 COMMAND TAKE 0.0000
-1.8451 COMMAND TARGET 0.0000
-1.8451 COMMAND TRIANGLE 0.0000
-0.9420 COMMAND TURN 0.0000
-1.8451 COMMAND UP 0.0000
-1.8451 COMMAND VERTICAL 0.0000
-1.5441 COMMAND VIDEO 0.0000
-1.8451 COMMAND WAVE 0.0000
-0.3010 DOWN </s> -0.3010
-0.6021 EIGHTY LEFT 0.0000
-0.6021 EIGHTY RIGHT 0.0000
-0.3010 END </s> -0.3010
-0.3010 FIND TARGET 0.0000
-0.9031 FLIP BACKWARD 0.0000
-0.9031 FLIP FORWARD 0.0000
-0.9031 FLIP LEFT 0.0000
-0.9031 FLIP RIGHT 0.0000
-0.3010 FOLLOW </s> -0.3010
-0.3010 FORWARD </s> -0.3010
-0.3010 FREEFALL </s> -0.3010
-0.3010 LANDING </s> -0.3010
-0.3010 LEFT </s> -0.3010
-0.6021 NINETY LEFT 0.0000
-0.6021 NINETY RIGHT 0.0000
-0.3010 OFF </s> -0.3010
-0.3010 ONE EIGHTY 0.0000
-0.3010 PHOTO </s> -0.3010
-0.3010 RIGHT </s> -0.3010
-0.6021 SIXTY LEFT 0.0000
-0.6021 SIXTY RIGHT 0.0000
-0.3010 SPIRAL </s> -0.3010
-0.3010 SQUARE </s> -0.3010
-0.3010 START </s> -0.3010
-0.3010 STOP </s> -0.3010
-0.3010 TAKE OFF 0.0000
-0.3010 TARGET </s> -0.3010
-0.3010 THREE SIXTY 0.0000
-0.3010 TRIANGLE </s> -0.3010
-1.2041 TURN LEFT 0.0000
-0.9031 TURN NINETY 0.0000
-0.9031 TURN ONE 0.0000
-1.2041 TURN RIGHT 0.0000
-0.9031 TURN THREE 0.0000
-0.3010 UP </s> -0.3010
-0.3010 VERTICAL SQUARE 0.0000
-0.6021 VIDEO END 0.0000
-0.6021 VIDEO START 0.0000
-0.3010 WAVE </s> -0.3010

\3-grams:
-1.8451 <s> COMMAND BACKWARD
-1.8451 <s> COMMAND BOUNCE
-1.8451 <s> COMMAND CIRCLE
-1.8451 <s> COMMAND DOWN
-1.8451 <s> COMMAND FIND
-1.2430 <s> COMMAND FLIP
-1.8451 <s> COMMAND FOLLOW
-1.8451 <s> COMMAND FORWARD
-1.8451 <s> COMMAND FREEFALL
-1.8451 <s> COMMAND LANDING
-1.8451 <s> COMMAND LEFT
-1.8451 <s> COMMAND PHOTO
-1.8451 <s> COMMAND RIGHT
-1.8451 <s> COMMAND SPIRAL
-1.8451 <s> COMMAND SQUARE
-1.8451 <s> COMMAND STOP
-1.8451 <s> COMMAND TAKE
-1.8451 <s> COMMAND TARGET
-1.8451 <s> COMMAND TRIANGLE
-0.9420 <s> COMMAND TURN
-1.8451 <s> COMMAND UP
-1.8451 <s> COMMAND VERTICAL
-1.5441 <s> COMMAND VIDEO
-1.8451 <s> COMMAND WAVE
-0.3010 COMMAND BACKWARD </s>
-0.3010 COMMAND BOUNCE </s>
-0.3010 COMMAND CIRCLE </s>
-0.3010 COMMAND DOWN </s>
-0.3010 COMMAND FIND TARGET
-0.9031 COMMAND FLIP BACKWARD
-0.9031 COMMAND FLIP FORWARD
-0.9031 COMMAND FLIP LEFT
-0.9031 COMMAND FLIP RIGHT
-0.3010 COMMAND FOLLOW </s>
-0.3010 COMMAND FORWARD </s>
-0.3010 COMMAND FREEFALL </s>
-0.3010 COMMAND LANDING </s>
-0.3010 COMMAND LEFT </s>
-0.3010 COMMAND PHOTO </s>
-0.3010 COMMAND RIGHT </s>
-0.3010 COMMAND SPIRAL </s>
-0.3010 COMMAND SQUARE </s>
-0.3010 COMMAND STOP </s>
-0.3010 COMMAND TAKE OFF
-0.3010 COMMAND TARGET </s>
-0.3010 COMMAND TRIANGLE </s>
-1.2041 COMMAND TURN LEFT
-0.9031 COMMAND TURN NINETY
-0.9031 COMMAND TURN ONE
-1.2041 COMMAND TURN RIGHT
-0.9031 COMMAND TURN THREE
-0.3010 COMMAND UP </s>
-0.3010 COMMAND VERTICAL SQUARE
-0.6021 COMMAND VIDEO END
-0.6021 COMMAND VIDEO START
-0.3010 COMMAND WAVE </s>
-0.3010 EIGHTY LEFT </s>
-0.3010 EIGHTY RIGHT </s>
-0.3010 FIND TARGET </s>
-0.3010 FLIP BACKWARD </s>
-0.3010 FLIP FORWARD </s>
-0.3010 FLIP LEFT </s>
-0.3010 FLIP RIGHT </s>
-0.3010 NINETY LEFT </s>
-0.3010 NINETY RIGHT </s>
-0.6021 ONE EIGHTY LEFT
-0.6021 ONE EIGHTY RIGHT
-0.3010 SIXTY LEFT </s>
-0.3010 SIXTY RIGHT </s>
-0.3010 TAKE OFF </s>
-0.6021 THREE SIXTY LEFT
-0.6021 THREE SIXTY RIGHT
-0.3010 TURN LEFT </s>
-0.6021 TURN NINETY LEFT
-0.6021 TURN NINETY RIGHT
-0.3010 TURN ONE EIGHTY
-0.3010 TURN RIGHT </s>
-0.3010 TURN THREE SIXTY
-0.3010 VERTICAL SQUARE </s>
-0.3010 VIDEO END </s>
-0.3010 VIDEO START </s>

\end\
